-5.101161077618598938e-02
-3.110055029392242432e-01
-1.738805621862411499e-01
-1.452516950666904449e-02
2.328668534755706787e-01
8.772301673889160156e-02
-1.389839202165603638e-01
-1.149169504642486572e-01
-4.355364665389060974e-02
-2.415554039180278778e-02
-2.043597996234893799e-01
-4.651879891753196716e-02
4.093599021434783936e-01
-2.530345618724822998e-01
2.402679435908794403e-02
-5.361257866024971008e-02
-4.713254049420356750e-02
1.283093392848968506e-01
-2.921307981014251709e-01
-1.173130720853805542e-01
-1.713251918554306030e-01
2.270232141017913818e-01
-1.887577003799378872e-03
-8.827614784240722656e-01
-2.681519687175750732e-01
1.267425864934921265e-01
-7.153106480836868286e-02
9.776259213685989380e-02
-1.421445310115814209e-01
-1.810545474290847778e-01
-1.088491678237915039e-01
-4.175097346305847168e-01
-1.300300955772399902e-01
1.873219199478626251e-02
1.834059655666351318e-01
-3.098247051239013672e-01
-2.838919162750244141e-01
-5.207184702157974243e-02
-2.873349376022815704e-02
1.051057130098342896e-01
7.912372052669525146e-02
-1.314214915037155151e-01
1.708808839321136475e-01
-8.997546881437301636e-02
-1.708876900374889374e-02
8.332866430282592773e-02
-7.438430190086364746e-02
3.069430887699127197e-01
-1.548179239034652710e-01
-4.277320951223373413e-02
-6.932532787322998047e-01
-1.581883281469345093e-01
-1.620303541421890259e-01
9.091934561729431152e-02
-6.219160184264183044e-02
-1.395458281040191650e-01
-2.150875627994537354e-01
2.929634414613246918e-02
1.112657710909843445e-01
-2.589095532894134521e-01
-3.375800549983978271e-01
-2.485379949212074280e-02
2.230435796082019806e-02
-2.104365527629852295e-01
