-4.183429777622222900e-01
-2.201174385845661163e-02
-6.617647409439086914e-02
-6.162147521972656250e-01
-2.041985392570495605e-01
-1.085720881819725037e-01
-2.598066441714763641e-02
2.102974057197570801e-01
-2.148623019456863403e-01
-6.812139600515365601e-02
-2.663717567920684814e-01
-4.487386941909790039e-01
2.247195541858673096e-01
-1.540052741765975952e-01
-5.006219074130058289e-02
-2.756989300251007080e-01
-5.522775650024414062e-01
6.195055693387985229e-02
4.072027802467346191e-01
-4.831718802452087402e-01
-2.383802533149719238e-01
4.348315671086311340e-02
-3.304707631468772888e-02
-1.295892596244812012e-01
1.510968804359436035e-01
-1.431451588869094849e-01
4.416376724839210510e-02
-2.025546431541442871e-01
1.418804228305816650e-01
-7.070133835077285767e-02
2.196163833141326904e-01
-3.269918859004974365e-01
-2.896357178688049316e-01
-2.773919999599456787e-01
-1.604196429252624512e-01
-1.498040109872817993e-01
-2.301163226366043091e-02
-2.995189726352691650e-01
2.631519734859466553e-02
-2.737150713801383972e-02
-7.113796472549438477e-02
4.643372595310211182e-01
1.175675019621849060e-01
1.227211430668830872e-01
-9.128204733133316040e-02
-2.287389039993286133e-01
3.787519931793212891e-01
-1.252352595329284668e-01
-4.315575361251831055e-01
-5.910014510154724121e-01
2.620554156601428986e-02
-4.668909907341003418e-01
-7.289973553270101547e-03
6.002864614129066467e-02
2.671213448047637939e-01
-5.004787072539329529e-02
-2.230432257056236267e-02
-2.084788382053375244e-01
-5.557734966278076172e-01
-1.360990107059478760e-03
-9.236057847738265991e-02
1.007493063807487488e-01
-6.965888142585754395e-01
-1.479862183332443237e-01
-2.368435710668563843e-01
-3.542291224002838135e-01
4.753949940204620361e-01
4.026991426944732666e-01
-3.428166210651397705e-01
2.390902340412139893e-01
-3.435951471328735352e-01
4.935679137706756592e-01
-7.778031378984451294e-02
-2.039925903081893921e-01
-3.321537375450134277e-01
-1.139338016510009766e-01
-2.942101359367370605e-01
-6.701903939247131348e-01
5.446518063545227051e-01
-4.581718146800994873e-01
-2.322135865688323975e-01
5.608888715505599976e-02
-2.206993401050567627e-01
-3.241630494594573975e-01
7.344865798950195312e-01
6.278911828994750977e-01
-3.173157870769500732e-01
-9.314641356468200684e-02
-1.156963631510734558e-01
-1.098608598113059998e-01
-2.200186252593994141e-01
-1.634858995676040649e-01
-2.150074541568756104e-01
-3.706057965755462646e-01
-7.709984481334686279e-02
-3.180267214775085449e-01
5.802012979984283447e-02
5.768311619758605957e-01
4.325330555438995361e-01
-3.017673492431640625e-01
-5.594215914607048035e-02
-4.515604674816131592e-01
4.313726127147674561e-01
-5.669404864311218262e-01
-1.499610021710395813e-02
-2.632603347301483154e-01
-3.906722664833068848e-01
-8.714706301689147949e-01
9.604603797197341919e-02
1.487543340772390366e-02
-1.447005420923233032e-01
2.279846519231796265e-01
-6.888631582260131836e-01
4.876279830932617188e-01
-1.070501565933227539e+00
-2.450909763574600220e-01
-5.919589400291442871e-01
1.308900211006402969e-02
-7.179003208875656128e-02
-3.124104142189025879e-01
8.341191709041595459e-02
3.573676347732543945e-01
3.583566844463348389e-02
-5.635400414466857910e-01
6.053916215896606445e-01
-1.282282732427120209e-02
1.919911503791809082e-01
-6.802476048469543457e-01
