3.070321083068847656e-01
3.041258156299591064e-01
3.020763099193572998e-01
3.082639575004577637e-01
3.086956739425659180e-01
3.102141320705413818e-01
3.240430057048797607e-01
3.382028341293334961e-01
3.518581986427307129e-01
3.595794439315795898e-01
3.714810907840728760e-01
3.617964088916778564e-01
3.893628418445587158e-01
3.862186670303344727e-01
4.008844494819641113e-01
4.219563007354736328e-01
2.603072822093963623e-01
2.793126106262207031e-01
2.929433882236480713e-01
2.896547317504882812e-01
2.892024815082550049e-01
3.134723305702209473e-01
3.187117278575897217e-01
3.254619538784027100e-01
3.413113355636596680e-01
3.467507064342498779e-01
3.588131368160247803e-01
3.506663739681243896e-01
3.729983270168304443e-01
3.687217235565185547e-01
3.888638615608215332e-01
4.078044891357421875e-01
2.417323738336563110e-01
2.956130802631378174e-01
2.477891147136688232e-01
1.819179654121398926e-01
1.855248957872390747e-01
1.282326728105545044e-01
1.933179199695587158e-01
2.935922332108020782e-02
1.166207268834114075e-01
3.869404271245002747e-02
-1.038789525628089905e-01
1.094289422035217285e-01
7.448484748601913452e-02
7.252903282642364502e-02
1.057658046483993530e-01
2.696940898895263672e-01
2.208626419305801392e-01
2.534309625625610352e-01
1.505968272686004639e-01
7.240390032529830933e-02
1.674796044826507568e-01
1.411501020193099976e-01
2.312723249197006226e-01
5.100567936897277832e-01
2.137921899557113647e-01
-7.881343364715576172e-01
-1.683877706527709961e-01
5.548359751701354980e-01
-1.612704843282699585e-01
-1.310947686433792114e-01
-4.456400126218795776e-02
-2.042241208255290985e-02
-2.448721602559089661e-02
2.788560092449188232e-02
6.510360538959503174e-02
2.643259465694427490e-01
1.549422740936279297e-01
1.766500473022460938e-01
2.571158707141876221e-01
2.959739267826080322e-01
3.293399810791015625e-01
3.988147377967834473e-01
6.840171217918395996e-01
9.304035902023315430e-01
8.954769968986511230e-01
1.700572729110717773e+00
1.387742161750793457e+00
7.854635715484619141e-01
-1.552049964666366577e-01
-3.882460296154022217e-01
-5.413610339164733887e-01
-1.007949411869049072e-01
-8.030463010072708130e-02
-1.812906414270401001e-01
-7.102714478969573975e-02
1.010141894221305847e-01
9.922230988740921021e-02
2.397050708532333374e-01
1.930570900440216064e-01
2.131725698709487915e-01
2.897589206695556641e-01
3.205514252185821533e-01
4.011192321777343750e-01
4.436211884021759033e-01
2.417742973193526268e-03
-2.232035398483276367e-01
-1.401756405830383301e-01
5.198038369417190552e-02
9.411846846342086792e-02
1.803046166896820068e-01
1.703806817531585693e-01
1.973617374897003174e-01
-3.628091141581535339e-02
-5.291938781738281250e-01
-4.334090352058410645e-01
-3.624196648597717285e-01
9.441396594047546387e-02
4.371730089187622070e-01
1.356471627950668335e-01
4.070019349455833435e-02
-6.150602102279663086e-01
-5.162221193313598633e-01
-5.062928795814514160e-01
-3.990624547004699707e-01
-3.045151531696319580e-01
-2.675873339176177979e-01
-9.992538392543792725e-02
-9.702521562576293945e-02
1.205682978034019470e-01
-8.214415283873677254e-04
8.333988487720489502e-02
3.050128817558288574e-01
1.756112575531005859e-01
2.862336635589599609e-01
4.760275483131408691e-01
4.940005242824554443e-01
-9.015940129756927490e-02
5.851092934608459473e-02
2.388380467891693115e-01
2.222399264574050903e-01
1.714052855968475342e-01
4.768871515989303589e-02
-6.078232824802398682e-02
7.198602892458438873e-03
4.211843013763427734e-02
1.874319314956665039e-01
2.989349067211151123e-01
3.549924790859222412e-01
4.528358876705169678e-01
4.757171273231506348e-01
4.468228816986083984e-01
5.135912299156188965e-01
2.979449927806854248e-01
3.021620213985443115e-01
3.042541146278381348e-01
3.137256205081939697e-01
3.041748404502868652e-01
3.237349390983581543e-01
3.227229416370391846e-01
3.377697765827178955e-01
3.595481216907501221e-01
3.487564623355865479e-01
3.778174221515655518e-01
3.776918947696685791e-01
3.877959251403808594e-01
3.853564858436584473e-01
4.116765856742858887e-01
4.168886244297027588e-01
2.885563969612121582e-01
3.055061399936676025e-01
3.206335008144378662e-01
3.148381710052490234e-01
3.138687610626220703e-01
3.151609301567077637e-01
3.175451457500457764e-01
3.346009850502014160e-01
3.570188283920288086e-01
3.561570048332214355e-01
3.553812503814697266e-01
3.868657946586608887e-01
3.904990255832672119e-01
4.016227722167968750e-01
3.859322071075439453e-01
4.266109764575958252e-01
2.832334637641906738e-01
2.342995256185531616e-01
2.264555394649505615e-01
2.655243575572967529e-01
2.801383733749389648e-01
2.751938402652740479e-01
2.870106697082519531e-01
3.005816340446472168e-01
3.301192522048950195e-01
3.971795141696929932e-01
3.803332149982452393e-01
3.798123896121978760e-01
3.656590580940246582e-01
4.180791676044464111e-01
3.632176220417022705e-01
3.922582268714904785e-01
-6.296109408140182495e-02
-8.385726809501647949e-02
4.408921301364898682e-02
1.354522705078125000e-01
1.667709648609161377e-01
9.450733661651611328e-02
4.756121709942817688e-02
2.023905664682388306e-01
1.021308749914169312e-01
-7.628362178802490234e-01
-1.606215715408325195e+00
-3.361626863479614258e-01
-3.506734967231750488e-01
-4.708228260278701782e-02
-1.260098457336425781e+00
-1.288002848625183105e+00
1.053177118301391602e-01
1.168673858046531677e-01
1.965164989233016968e-01
2.255541831254959106e-01
8.546359091997146606e-02
5.104010552167892456e-02
7.314665615558624268e-02
6.241034343838691711e-02
2.495730817317962646e-01
1.401494536548852921e-02
-7.640409469604492188e-02
-1.210311874747276306e-01
-1.361883878707885742e-01
-1.450375765562057495e-01
-1.416355818510055542e-01
-1.391585767269134521e-01
1.612659990787506104e-01
1.597061604261398315e-01
7.123173773288726807e-02
1.156591922044754028e-01
1.596624106168746948e-01
1.428519934415817261e-01
9.187423437833786011e-02
1.169683709740638733e-01
1.565147042274475098e-01
-2.679405212402343750e-01
-6.282561421394348145e-01
-3.722815215587615967e-01
-5.922434926033020020e-01
-8.851684927940368652e-01
-3.323554992675781250e-01
1.627311855554580688e-02
1.297123134136199951e-01
1.847664117813110352e-01
1.528622210025787354e-01
1.424193233251571655e-01
1.746726632118225098e-01
1.786401122808456421e-01
2.114119231700897217e-01
2.426895797252655029e-01
1.795584708452224731e-01
8.498001843690872192e-02
4.368306323885917664e-02
3.508903027977794409e-04
1.197133213281631470e-01
1.315466314554214478e-01
-8.766762912273406982e-02
-2.141683995723724365e-01
